eat 0.64295 -0.42946 -0.54277 -1.0307 1.2056 -0.27174 -0.63561 -0.015065 0.37856 0.046474 -0.13102 0.605 1.6391 0.2394 1.2128 0.83178 0.73893 0.152 -0.14175 -0.88384 0.020829 -0.32545 1.8035 1.0045 0.58484 -0.62031 -0.43296 0.23562 1.3027 -0.81264 2.3158 1.103 -0.60608 1.0101 -0.22426 0.018908 -0.10931 0.3835 0.77362 -0.081927 -0.3404 -0.0015143 -0.05664 0.87359 1.4805 0.69421 -0.30966 -0.90826 0.0037277 0.8455
sleep 0.58351 0.083661 -0.13939 -0.82766 -0.17556 -0.043828 0.35122 0.35502 0.52952 0.39972 0.31082 0.079006 0.18407 0.41414 0.93696 0.90082 -0.66807 -0.2177 -0.075314 -0.58204 -0.28963 1.6405 0.96226 0.28292 0.80467 -0.13471 -0.28345 -0.18936 1.1527 0.38487 2.4024 0.9273 -0.31132 -0.69609 -0.1434 0.56308 0.97092 -0.14662 1.5631 0.31495 -0.63698 -0.12055 -0.29838 1.4639 0.76165 0.02773 0.63513 -1.3668 -0.12374 0.76713
run -0.39488 -0.16448 0.5962 0.65815 -0.16846 -0.15133 -1.4758 0.30485 0.21424 0.14186 -0.61187 -0.30795 -0.95699 0.5091 0.044055 -0.45553 0.2935 -0.13392 -0.5435 0.15159 0.029202 -0.18742 -0.063712 0.13006 0.21263 -1.6852 0.49537 -0.3251 0.58808 -0.41512 3.3893 0.48489 -0.30358 0.64958 -0.12071 0.02473 0.041069 0.68037 0.11627 0.19554 -0.49145 -0.051832 -0.73035 0.58392 -0.48736 0.064017 -0.41403 -0.25202 0.18886 0.010374
jump -0.90743 0.30887 1.0604 0.088596 0.30813 0.38332 -0.43078 -0.096476 0.51664 0.186 0.28332 -0.76336 -0.636 0.52167 0.88101 0.1594 0.30474 -0.31674 -1.5727 -1.1203 0.43566 -0.53812 -0.37352 -0.47691 0.92426 -0.99819 -0.30322 -0.065498 0.49301 -0.1758 2.1002 0.7036 0.037695 0.78172 -0.13428 -0.85177 -0.060642 0.47088 0.014336 -0.6508 -0.59218 -0.34837 0.34901 0.012822 0.19881 -1.148 1.2566 -0.35399 0.15462 -0.007928
walk 0.41281 0.9111 -0.078414 -0.46515 0.61895 -0.44519 -0.87504 0.56701 0.49514 -0.21485 -0.83541 -0.29613 -0.28876 0.53828 0.43055 -0.057304 0.71466 -0.17082 -0.30146 -0.80056 -0.21391 0.41419 -0.37661 0.58611 0.87291 -0.87558 0.41582 0.36177 0.73332 -1.2614 2.5127 0.72621 -0.26803 0.41676 -0.32908 -0.084007 0.69154 0.10406 0.078041 0.38302 -0.52088 -0.09671 -0.48499 0.8369 -0.21648 -0.6175 0.28083 -1.5188 -0.36781 0.27547
talk -0.034604 0.41087 -0.097368 -0.19548 -0.05855 -0.2581 -0.85141 0.19582 -0.76829 0.37035 -0.63907 0.30593 -0.38117 0.40505 0.90915 0.54359 -0.088861 0.17422 0.33587 -0.36806 0.32399 1.056 0.68695 0.81261 0.74166 -1.7618 -0.085259 0.34565 0.55371 -0.24026 2.8321 0.80733 -0.59279 -0.52127 -0.60045 -0.39173 -0.27123 -0.52009 -0.4718 -0.46781 -0.046203 0.39371 -0.78866 0.43174 0.52053 0.028046 -0.013935 0.56204 -0.5977 0.95068
sing -0.29245 0.39126 -0.82115 -0.86165 -0.16127 -0.79219 0.070095 0.64483 -0.94588 1.1039 -0.1316 0.94656 0.68815 0.65386 0.19023 0.26685 -0.022583 -0.2765 0.46272 -0.1236 0.0020834 0.72848 0.72491 0.53107 0.98748 -0.75498 -0.97854 -0.32915 -0.74099 -1.8375 2.3183 0.82202 0.16911 1.0029 -0.030015 -0.35653 1.1935 -0.90979 -0.041288 0.22713 -0.4785 0.5535 -0.71703 -0.007665 0.46622 -0.29864 -0.19841 -1.5861 -1.0229 0.87057
dance -0.99716 0.61348 -1.7686 0.087052 -0.24644 0.19984 -0.25892 -0.031309 -0.43117 1.0844 0.47032 -0.36731 0.10047 1.2459 0.0025728 -0.38805 0.48489 0.38052 -0.56983 -0.84332 0.88607 0.97396 0.00906 0.95187 0.33867 -0.25218 -1.5633 -0.48921 -0.34712 -1.2629 2.8455 0.28887 -0.19158 0.065195 -0.19799 0.22815 0.44613 -0.082659 -0.33068 0.048144 -0.27224 -0.21765 -0.55931 -0.40149 0.56395 -0.19915 0.72645 -1.5184 -0.87863 0.2186
write -0.065611 0.18878 0.38947 -0.92129 -0.054665 0.092087 -0.61836 -0.20273 -0.6934 0.37932 -0.93522 1.1831 0.12253 -0.23378 1.1514 -0.3569 -0.1512 -0.55447 0.74518 -0.38761 0.86141 0.21631 0.58287 0.4363 1.0553 -1.0469 -1.005 -0.92106 0.050321 -0.98783 2.7488 -0.27942 -0.19763 0.070004 -0.29268 -0.11478 -0.008812 -0.13659 0.38288 -0.51391 0.66497 0.07742 0.21333 0.52978 -0.60236 0.26459 0.46799 0.50332 -0.37874 0.78717
read -0.38669 0.36389 0.2057 -0.95315 0.87229 -0.62326 -0.63946 -0.43845 -0.38879 -0.082899 -0.69304 0.63946 -0.042382 -0.13799 0.95895 -0.22974 -0.8644 -0.69957 0.32568 -0.59403 0.36468 0.72927 0.95577 0.4538 1.2432 -1.5757 -1.0416 0.078455 -0.25434 -1.0224 2.4128 -0.42656 -0.46437 -0.48246 -0.37748 -0.13691 0.69548 -0.033102 -0.14665 0.01426 1.0946 0.41079 -0.19007 0.45311 0.07433 0.3316 0.35128 0.047686 -0.0052808 0.098593
think -0.1166 -0.010887 0.044444 -0.39349 0.77743 -0.35689 -0.42073 -0.12338 -0.58818 0.3166 -0.3084 0.4558 -0.83117 0.0231 0.88091 0.71288 1.1223 0.13017 0.017489 -0.82336 -0.65853 0.63098 0.34655 0.25429 0.9928 -2.2232 -1.1191 0.26796 0.71472 -0.76952 3.0569 0.75397 -0.34325 -0.60568 -0.4142 -0.8 -0.17019 0.35416 0.29577 -0.51743 -0.48561 0.0161 0.10267 0.52783 0.32212 0.26552 -0.23728 0.44057 0.0064518 1.2454
believe 0.58979 -0.26647 0.53642 -0.46648 0.93958 0.059251 -0.43161 0.050446 -0.1823 0.56424 0.093586 0.16454 -0.43468 -0.24738 0.64491 0.65876 0.77999 -0.32867 0.12281 -0.30894 -0.63677 0.33784 0.39404 0.0051813 0.58064 -2.1587 -0.90265 -0.39912 0.35394 -0.37011 2.6363 0.2065 -0.68239 -0.90132 -0.12276 -0.91148 -0.16604 -0.23857 -0.080387 -0.10168 -0.6872 -0.21279 0.2631 0.76259 0.5156 0.057379 -0.75805 0.57521 0.0235 0.056102
know 0.28328 0.12887 0.29861 -0.23238 0.88263 -0.30814 -0.61148 0.37254 -0.40449 0.17351 -0.13958 0.67868 -0.55673 -0.13453 1.1441 0.53457 0.59148 0.19083 0.25406 -0.71581 -0.87951 0.72879 0.67054 0.62866 1.0034 -2.2327 -1.194 -0.06245 0.93933 -1.1132 2.926 0.59809 -0.51255 -0.49886 -0.016524 -0.20697 -0.059229 -0.0072689 0.53314 -0.14621 -0.21417 0.24102 0.21648 0.73351 0.43582 0.045278 -0.25489 0.15273 -0.13088 0.89397
feel -0.0044021 -0.34141 -0.22729 -0.69283 0.80244 -0.21823 -0.19036 0.86436 -0.6988 0.58897 0.22517 0.1399 -0.18051 0.14046 0.55502 0.59184 0.51439 0.30326 0.37276 -1.0549 -1.0332 1.2613 0.20113 0.50856 1.0459 -1.509 -1.1532 0.63151 1.1575 -0.52315 3.1025 1.0674 0.47125 -0.52927 -0.51614 -0.31387 0.011424 0.017461 0.026483 -0.81318 -0.42375 -0.23732 0.24397 0.74946 0.056762 0.26774 -0.82833 -0.25263 -0.29477 0.611
love -0.13886 1.1401 -0.85212 -0.29212 0.75534 0.82762 -0.3181 0.0072204 -0.34762 1.0731 -0.24665 0.97765 -0.55835 -0.090318 0.83182 -0.33317 0.22648 0.30913 0.026929 -0.086739 -0.14703 1.3543 0.53695 0.43735 1.2749 -1.4382 -1.2815 -0.15196 1.0506 -0.93644 2.7561 0.58967 -0.29473 0.27574 -0.32928 -0.201 -0.28547 -0.45987 -0.14603 -0.69372 0.070761 -0.19326 -0.1855 -0.16095 0.24268 0.20784 0.030924 -1.3711 -0.28606 0.2898
hate -0.85233 -0.14749 0.049936 -0.7872 0.19493 0.48929 0.34392 -0.61542 -0.37281 0.77186 -0.71914 -0.12973 -0.40985 -0.65339 0.94961 -0.49831 0.25442 0.049586 0.18927 -0.14948 -0.27686 0.32095 0.85855 1.0173 0.22242 -1.8237 -0.69343 -0.018455 1.4549 -1.1038 1.526 0.69842 -0.5901 -1.0475 -1.2981 -0.47258 -0.3198 -1.3484 -0.19307 0.18261 0.043868 -0.17222 0.16779 0.66191 0.71634 0.16961 -0.34744 -0.15155 -0.051676 0.29743
see 0.31369 0.73732 0.27501 -0.51882 0.39102 -0.84733 -0.22596 -0.3745 -0.56751 -0.10444 -0.07865 0.50972 -0.44274 0.038197 0.759 0.98204 0.26128 -0.62279 -0.064897 -0.52966 -0.30045 -0.18522 0.28722 0.36005 0.40381 -1.7122 -1.2329 0.12507 0.46661 -0.36031 3.1632 0.56363 -0.46641 -0.48497 -0.10749 -0.47382 0.10153 -0.34646 0.28584 -0.20812 -0.44613 0.27223 0.2287 0.30833 0.1775 0.3363 0.38842 -0.25642 0.1355 0.24894
hear 0.1655 -0.14173 -0.17355 -0.24184 0.40247 -0.584 0.063552 1.185 -0.72917 0.45865 -0.82043 0.16704 0.015364 0.12564 0.92438 0.34836 -0.21377 -0.32304 0.20162 -1.4674 0.0065088 1.0631 0.50686 0.40287 1.1614 -1.7524 -0.88722 0.35664 -0.14037 -1.289 2.3621 -0.0091806 -0.47162 -0.57333 -0.12787 -0.78315 0.71153 -1.0438 0.16456 -0.0075244 -0.19858 0.57022 -0.52473 0.6652 0.52154 0.68132 -0.086963 0.20665 -0.7443 0.41001
understand 0.31816 0.036658 -0.0059267 -0.21963 0.75152 -0.085889 0.11732 0.25024 -0.6224 0.20916 0.21852 0.75652 -0.20743 -0.14595 0.51267 0.65346 0.55542 0.16595 0.72502 -0.6728 -0.56031 0.71696 0.14896 0.56368 1.5101 -1.7864 -1.0926 -0.58271 0.59784 -0.51781 2.6866 0.64103 -0.52476 -1.2895 -0.25079 -0.3654 -0.47457 -0.10959 0.17881 0.13543 -0.19339 -0.21158 0.42191 0.76331 0.33056 0.35811 0.34668 0.85346 -0.18194 0.53561
go 0.14828 0.17761 0.42346 -0.31489 0.32273 -0.72413 -0.78955 0.49214 -0.20693 -0.00055088 -0.47877 0.28853 -0.57376 0.27217 1.1129 0.57808 0.69321 -0.28652 -0.054545 -0.61826 0.17227 0.29263 0.38184 0.62186 0.55461 -1.7411 -0.28802 -0.1714 0.74743 -1.0135 3.3596 1.137 -1.0028 0.17685 -0.0061795 -0.063491 0.19077 0.044046 0.38228 -0.41607 -0.50359 -0.083803 0.17508 0.4042 0.077324 0.17415 0.12541 -0.2182 0.12971 0.32953
come 0.5267 0.11441 0.14093 -0.40644 0.34111 -0.40799 -0.67183 0.23969 -0.3304 0.12019 -0.35656 0.34382 -0.31989 -0.00086997 0.93045 0.63065 0.53203 -0.18394 0.0096085 -0.77365 -0.074457 0.19161 0.32322 0.085198 0.50963 -1.6627 -0.75802 -0.03279 0.49123 -0.65138 3.3806 0.92922 -0.59465 -0.12685 0.0083381 -0.15791 -0.10011 -0.085623 -0.086155 -0.37089 -0.56575 0.16299 0.086445 0.21332 0.32212 0.37084 -0.00059583 0.052873 -0.2983 0.020482
stay 0.65441 0.31838 0.070363 -0.59147 0.34671 -1.047 -0.68774 1.1305 -0.43394 -0.1514 0.0032039 -0.020321 0.037792 0.22002 0.81315 1.0103 0.1455 -0.37747 0.19326 -0.4068 -0.1672 0.656 -0.12228 0.57226 0.14479 -1.4674 0.80944 0.17311 0.42885 0.059929 3.0133 0.99317 -0.80836 0.072926 0.36601 -0.23444 0.32211 0.32901 0.059415 -0.73308 -0.43275 -0.060536 0.29161 0.41427 0.072776 -0.03622 -0.085158 -0.38671 -0.034887 0.44865
sit 0.005063 0.13623 0.1011 -0.77759 0.91423 -0.97427 -0.082524 0.71395 -0.70621 -0.71797 -0.51432 -0.12524 -0.19301 0.79641 0.56453 0.95354 0.51258 0.018312 0.43871 -1.4564 0.29894 0.54014 0.55191 0.92693 0.22536 -0.98112 0.31072 0.44814 0.029147 -0.59281 2.4781 0.83729 -0.89343 0.26593 -0.09741 0.083935 0.49695 0.20434 0.3333 -0.16809 -0.41819 -0.17108 -0.33493 1.2074 -0.047667 0.081579 -0.020771 -0.89843 -0.36585 -0.27487
stand -0.13774 0.14931 0.099568 -0.37676 1.2273 -0.070994 0.31741 0.21739 -0.14523 -0.13862 -0.92463 -0.15717 -0.53851 0.3475 0.20687 0.20037 0.5663 -0.15515 0.15738 -0.85443 0.0081693 0.6689 0.096086 0.091933 0.027973 -1.4444 0.26543 0.35825 0.44352 -0.056787 2.7514 0.13184 -0.50861 0.33458 0.0069826 -0.24356 0.53743 -0.069899 -0.75614 -0.73467 -0.15408 -0.20189 0.081943 0.48444 0.10008 0.66851 -0.75042 -0.57254 0.058809 -0.19577
lie 0.87277 0.59845 0.3452 0.27371 0.74807 0.20923 0.72321 0.69126 -0.10401 -0.61083 -0.49652 -0.14998 -0.6047 -0.34368 0.23663 0.42915 1.2958 -0.20317 0.23314 -0.62541 -0.44261 0.27209 0.78465 0.53734 0.54189 -0.90773 -0.82212 0.68494 0.57391 -0.73208 2.1018 -0.35382 0.027758 -0.48256 -0.10663 -0.075845 -0.31844 0.053238 0.31828 0.16448 -0.18684 -0.45024 0.62261 0.93515 -0.44729 -0.462 0.17056 -0.39238 0.41391 -0.92429
play -0.73571 0.19937 -0.89408 0.36406 -0.20246 -0.034324 -0.63138 0.76669 -0.94343 0.65883 0.049478 0.55608 -1.2809 0.44575 0.73791 0.014728 0.80956 -0.35516 -1.0248 -0.13845 -0.47632 0.32001 0.35023 0.77794 0.60233 -1.2321 0.043144 -0.41347 0.34533 -1.3093 3.4681 0.9882 0.038253 -0.33672 0.30999 0.6331 0.30798 0.68528 -0.21989 -0.77505 -0.036884 0.051738 -0.25442 -0.063405 -0.20665 0.91281 0.80133 -0.075279 -0.44448 0.47437
work 0.51359 0.19695 -0.51944 -0.86218 0.015494 0.10973 -0.80293 -0.33361 -0.00016119 0.010189 0.046734 0.46751 -0.47475 0.11038 0.39327 -0.43652 0.39984 0.27109 0.4265 -0.6064 0.81145 0.4563 -0.12726 -0.22474 0.64071 -1.2767 -0.72231 -0.6959 0.028045 -0.23072 3.7996 -0.12625 -0.47967 -0.99972 -0.21976 0.50565 0.025953 0.80514 0.19929 0.28796 -0.15915 -0.30438 0.16025 -0.1829 -0.038563 -0.17619 0.027041 0.046842 -0.62897 0.35726
study 0.7196 0.71446 -0.51931 -0.7443 -0.06024 0.54708 -0.54618 -0.99133 0.73429 0.18832 0.32969 -0.27397 0.28741 -0.09161 0.32494 -0.017665 -0.13707 -0.17801 -0.24557 0.11867 0.34275 0.3795 0.42772 -0.26742 0.37385 -1.2254 -0.77036 -0.70446 -1.175 0.14247 3.0784 -0.39591 -0.30366 -1.7702 -0.0043639 -0.46792 -0.08895 0.89358 0.88059 0.22266 -0.53512 -0.49875 0.61852 0.69546 0.39189 0.053596 0.81017 0.87904 -0.37766 0.46718
learn 0.26034 -0.076654 -0.24289 -0.44943 0.51148 -0.511 -0.41264 0.384 -0.53689 0.10198 0.30961 0.7689 0.23379 -0.10567 0.54441 0.30665 0.17474 0.40431 0.35889 -0.63758 -0.079887 0.89277 0.1946 0.67016 1.6739 -1.3815 -0.847 -1.075 0.36946 -1.1778 2.7988 0.9184 -0.65995 -0.89701 0.25294 0.23747 -0.44317 0.33532 0.35542 -0.083107 -0.32762 -0.48147 0.55005 0.64588 0.91973 0.11549 0.78952 0.19521 -0.28768 0.5059
teach -0.61605 0.0374 -0.62538 -1.5481 0.39912 -0.49331 -0.24475 -0.44788 -0.48679 0.36008 0.20303 0.67439 0.48325 -0.36704 -0.0088558 -0.081693 0.2483 0.85124 0.47735 0.065308 0.28654 0.89706 -0.0095873 0.74189 1.1208 -1.3498 -0.42859 -1.8199 0.019896 -1.2051 2.2452 0.86223 -1.2847 -0.8728 0.22553 0.43352 -0.18957 0.30527 0.34543 0.41903 -0.068728 -0.64676 0.42084 0.73324 0.62016 0.11056 1.0058 0.047103 -0.54727 0.64106
help 0.88189 -0.07336 0.7171 -0.39262 0.24097 -0.13752 -0.61264 0.32193 0.4621 0.10509 0.11496 0.67571 0.0030444 -0.13679 0.052875 0.47073 0.58707 -0.30466 0.71892 -0.37503 0.1695 0.29757 -0.22053 -0.27809 0.29786 -1.7792 0.14847 -1.1411 0.38335 -0.65889 3.718 1.5077 -0.98004 -0.52614 -0.083689 0.57144 -0.62119 -0.0444 0.68299 -0.64181 -0.45596 -0.011288 0.44917 -0.39481 0.60444 0.25558 -0.072523 0.1774 -0.15583 0.11012
give 0.30577 0.30053 0.22806 -0.14625 0.74309 -0.14415 -0.43512 0.59286 -0.1743 0.47471 -0.13492 0.33909 0.093609 -0.11892 0.31555 0.3845 0.54051 -0.69359 0.24688 -0.93476 -0.041963 0.25972 -0.004559 -0.1688 0.088309 -1.7161 -0.16327 -0.40159 0.13859 -0.93499 3.366 1.1006 -0.96759 -0.092375 0.19996 -0.17415 0.1836 0.20687 0.10418 -0.7353 0.33549 0.11443 -0.016682 0.23897 -0.036168 0.25008 -0.19502 0.70866 -0.039504 0.18456
take 0.62257 0.071858 0.024343 -0.12574 0.31062 -0.2258 -0.34277 0.50858 -0.13264 -0.068181 -0.21331 0.27151 -0.44914 0.076563 0.54888 0.58235 0.46806 -0.3486 -0.14855 -0.81118 0.26717 0.24443 0.016739 0.04569 0.23783 -1.9723 -0.067601 -0.50336 0.21409 -0.48434 3.5853 1.1371 -1.1428 -0.058785 0.2457 -0.16272 0.17293 0.18225 0.0188 -0.52325 -0.34459 0.035117 0.27834 0.18419 0.23106 0.13612 0.021502 0.18111 0.038953 0.23854
ask 0.35517 0.08018 0.12342 -0.36013 0.92599 -0.51501 -0.27503 0.80662 -0.31547 -0.27528 -0.21304 0.85554 0.30507 0.030532 1.0495 0.64609 0.12683 -0.26295 0.97483 -0.88834 0.22962 0.5946 0.18114 0.5224 0.53417 -2.0729 -0.26424 -0.34557 -0.055137 -1.0751 2.2939 0.78232 -1.3147 -0.21356 -0.13991 -0.42704 0.45733 -0.42505 0.40247 -0.38998 0.15473 0.43157 0.19479 0.45931 0.28742 0.10683 -0.36225 0.59062 0.025688 0.94245
tell 0.27569 0.11783 0.37882 -0.49723 0.76888 -0.36292 -0.54519 0.65276 -0.46172 -0.14952 -0.38614 0.79168 -0.15403 -0.058205 1.1229 0.56527 0.16595 -0.077778 0.64327 -0.72984 -0.21189 0.92225 0.69001 0.69599 1.1019 -1.9937 -1.2675 -0.15723 0.48296 -1.2519 2.285 0.46189 -0.70236 -0.47738 -0.14543 -0.20278 0.074301 -0.36134 0.38502 -0.21962 -0.018846 0.3053 0.039375 0.38343 0.54826 0.06803 -0.065348 0.057069 -0.12171 0.79355
show -0.034772 0.64145 -0.37352 0.20804 0.20488 0.10238 -0.90995 -0.57641 0.01479 0.45589 -0.15513 -0.18886 -0.44949 0.39482 1.1552 0.15602 -0.071006 0.056749 -0.66921 -0.43072 0.78598 0.67878 0.54741 0.23433 0.18783 -1.1221 -1.3257 0.45237 0.069194 -0.47916 3.0153 0.8077 0.097056 -1.065 -0.49647 0.051322 0.38649 -0.25782 -0.76952 -0.70461 -0.15052 0.36085 -0.97656 -0.58116 0.081565 -0.41565 -0.16104 -0.23396 -0.28784 0.98359
call 0.098201 0.39924 0.25697 -0.085349 0.27175 -0.63637 -0.62719 0.25895 -0.53249 -0.22927 -0.76258 0.2173 0.37017 0.082194 0.46016 0.14439 -0.35333 -0.62408 0.1025 -0.58597 0.16874 0.41939 0.082275 0.48931 0.62348 -1.8434 -0.11815 -0.25465 0.38033 -0.41893 3.0159 0.35014 -1.2656 -0.14951 -0.32056 -0.72769 0.5398 -1.2532 -0.013795 -0.0048093 0.37453 0.41136 -0.12614 0.48701 0.4782 0.35898 -0.1709 0.70284 0.32207 0.77503
try 0.38204 -0.50218 0.2995 -0.46116 0.20973 -0.26879 -0.317 0.6004 -0.22653 0.32777 -0.41231 0.65231 -0.6068 0.39835 0.22622 0.73449 1.3694 -1.057 0.041183 -0.88573 0.25723 0.38203 0.13009 0.36953 0.033313 -1.7332 0.10601 -0.80652 0.68499 -0.92128 2.949 1.1876 -1.687 -0.1293 0.2607 0.33787 -0.30889 0.0165 0.14772 -0.69315 -0.1241 0.36137 0.47371 -0.02768 0.67094 0.52057 0.52428 -0.072414 0.24452 -0.027145
use 0.36404 -0.16619 0.28584 -0.17042 -0.42253 0.43921 -0.2348 -0.89034 0.063375 0.37835 0.41151 0.72865 0.72612 -0.081949 -0.18455 0.58287 -0.055214 0.19534 -0.022018 -1.2055 0.47209 -0.53655 0.17969 0.056589 -0.19033 -1.7427 -0.19718 -0.44248 0.85523 -0.51624 3.7482 -0.094815 -1.1104 -0.73457 0.36396 0.62193 0.35603 0.14707 -0.42021 0.16994 0.74747 0.14756 0.41393 0.80217 0.58067 0.10242 0.1147 0.40129 -0.086234 0.045505
make 0.55494 -0.048714 0.07152 -0.071538 0.4115 0.18034 -0.48436 -0.03592 -0.15302 0.43587 -0.30612 0.40199 -0.01432 0.15249 0.55544 0.44785 0.75881 -0.20428 0.25571 -1.0264 0.12219 -0.03706 0.14761 -0.087048 0.27103 -1.6697 -0.40418 -0.22598 0.7748 -0.85116 3.796 0.83318 -0.78647 -0.037684 0.22303 0.071425 0.0067017 0.57189 -0.21843 -0.5835 -0.21028 0.1189 0.30614 0.32978 0.11962 0.30695 -0.18082 0.4535 -0.086564 0.40418
find 1.0802 0.085736 0.28167 -0.19273 0.93193 -0.10568 -0.80244 0.42669 0.22081 0.12251 -0.31736 0.55053 -0.061096 0.13448 0.74414 0.55047 0.7179 -0.14794 0.47325 -0.90378 -0.14574 0.52747 0.057465 0.63847 0.65556 -1.5925 -0.87666 -0.081343 0.87799 -0.68604 3.1281 0.30949 -0.42348 -0.74618 0.24501 0.30605 -0.3099 0.16849 0.187 -0.60936 -0.058143 -0.034153 0.34745 0.49639 0.53131 0.11259 0.030348 0.062295 0.16278 0.17376
keep 0.14817 -0.22174 0.60221 -0.79489 0.33458 -0.40401 -0.62263 0.2534 0.054533 -0.032518 -0.045699 0.44085 -0.4429 0.28122 0.36606 0.78263 0.50841 -0.36081 0.386 -1.0235 0.10762 0.11578 0.2524 -0.025313 0.026976 -1.7654 0.21529 0.2338 1.0036 -0.42981 3.3928 1.0676 -0.42449 -0.082618 -0.36884 0.17497 -0.28572 0.17852 0.1916 -0.67692 -0.18997 -0.10071 0.22753 0.50452 0.2432 -0.03997 -0.089887 -0.19582 -0.096731 -0.055916
start 0.077252 -0.19066 -0.13526 -0.17215 -0.15956 -0.48406 -1.142 0.46218 -0.19232 0.081236 -0.32315 -0.2377 -1.1761 0.24611 1.0217 0.0057534 0.11035 -0.45541 -0.65365 -0.34905 0.30467 -0.068527 0.10247 0.040885 0.30685 -1.1224 0.57875 -0.16792 0.84791 -0.2942 3.6048 1.0393 -0.68009 0.15662 0.085625 -0.011575 0.14908 0.66991 -0.13155 -0.2162 -0.75851 -0.55175 -0.34866 -0.010021 0.21793 0.35662 0.56263 0.19285 -0.2547 0.17717
stop 0.31973 -0.53511 0.16837 -0.51493 -0.54168 -0.052323 -0.3467 0.41141 0.48828 0.19277 -0.43457 -0.054993 -0.70818 -0.21076 0.30517 0.06356 0.35297 -0.12412 -0.12177 -0.41381 0.74801 0.2171 0.0077925 0.50231 0.2459 -2.2516 0.58344 0.12077 1.2825 -1.0129 2.9238 0.7587 -1.0051 -0.17133 -0.61737 -0.015465 0.30681 -0.7098 -0.39136 0.53807 -0.1542 0.083077 -0.0020523 -0.11419 0.66978 -0.22367 -0.16531 -0.021139 0.061458 -0.10773
begin 0.78935 -0.11272 -0.052922 -0.37728 -0.3212 -0.24716 -0.75656 0.41476 -0.035821 -0.27687 -0.32666 -0.31582 -0.32013 0.3639 0.90324 0.46102 -0.26195 -0.29532 -0.048615 -0.497 1.1649 -0.035464 0.51134 -0.085935 0.034789 -0.96857 0.45049 -0.34168 0.646 -0.36148 3.1212 0.75506 -1.3614 -0.47715 0.0074122 -0.051868 -0.0102 0.18619 -0.12723 -0.0018361 -0.87228 -0.60748 0.033482 -0.049084 0.20359 0.043393 0.65307 0.27783 -0.70599 0.13716
end -0.04116 0.22243 -0.11458 -0.33628 0.038872 -0.066803 -0.58309 -0.19971 -0.51087 -0.29037 -0.49177 -0.13533 -1.0737 -0.4156 0.81837 0.47902 0.078869 -0.60318 -0.5732 0.065613 0.21122 -0.20912 -0.27305 -0.21332 -0.077237 -1.4695 0.46413 0.1222 0.80235 0.25796 3.7452 0.14293 -0.51556 0.34662 0.12782 -0.21896 0.15115 -0.2969 -0.37945 -0.41931 -0.74006 -0.10499 -0.31756 -0.23893 -0.40606 0.24247 0.55832 -0.1801 -0.37332 -0.18039
seem 0.70698 -0.18923 -0.17025 -0.50861 0.36122 -0.040699 -0.29081 0.20262 -1.0568 0.71573 -0.48377 0.31663 -0.068572 0.20832 0.56141 0.73873 0.58244 -0.29887 0.28422 -1.1864 -0.68141 0.22177 0.38082 0.4448 0.65851 -1.2956 -1.3732 0.47411 1.1084 -0.16981 2.6691 0.48457 0.40683 -1.0148 0.14255 -0.30646 -0.45092 0.27725 -0.816 -0.66535 -0.67595 0.063493 0.40791 1.1232 0.26453 0.28679 -0.18674 0.12652 -0.046352 0.50433
become 0.25628 -0.080969 -0.22797 -0.20333 0.34036 0.099251 -0.61572 0.1808 -0.14969 0.13429 0.46767 0.33 -0.10931 0.57143 0.22907 0.57336 0.25958 0.5906 0.18307 0.041417 -0.53393 -0.35953 -0.10964 0.80199 0.041424 -1.8999 -0.5605 -0.10516 0.34805 0.65011 3.2213 -0.065601 0.35345 -0.93902 -0.13548 0.045436 -0.45061 0.53959 -0.5322 -0.89699 -0.7165 -0.11548 -0.095226 0.55254 0.036713 0.29047 -0.75333 -0.63826 -0.071853 0.30162
grow 0.61862 -0.048698 0.7517 -0.62917 0.71985 0.26218 -0.52364 -0.97084 -0.049097 0.085228 0.61032 -0.095429 0.81688 -0.71223 0.86588 1.1529 0.36392 0.45425 0.34926 -0.61041 -0.32505 -0.84225 0.91246 -0.084617 0.52918 -0.19055 0.33642 0.15044 0.78693 0.24451 3.1382 0.77712 0.4387 -0.15823 -0.58905 -0.36858 -1.3768 0.70504 0.33494 -1.1469 -1.1212 -0.74494 0.32404 -0.26903 0.76195 -0.071868 0.47063 -0.8132 -0.66477 0.3989
open -0.062761 0.81904 -0.067769 1.0728 -0.48884 -0.53659 -0.39512 0.29684 -0.24994 -0.64616 -0.38994 -1.0181 -0.74659 0.5638 0.62756 0.84303 0.1374 -0.54534 -0.16795 -0.43048 0.18814 0.16537 -0.1674 0.59948 -0.16904 -1.1376 0.36256 0.19763 0.010075 -0.3838 3.5756 0.045535 -0.52057 0.32947 -0.36942 -0.37348 0.31756 0.81132 -0.044679 -0.79792 0.22949 -0.73993 0.90041 0.46883 0.4512 0.6644 0.24931 -0.88062 -0.042584 -0.21827
close 0.39621 0.15996 0.46712 0.18459 1.1826 -0.29844 -0.44587 0.13879 -0.79038 -0.21838 -0.33809 -0.68331 -0.37921 -0.11752 0.042039 0.48018 -0.012653 -0.45736 -0.77084 -0.047438 0.31252 0.5868 0.11256 -0.25544 0.13935 -1.3885 0.66674 0.28422 0.14652 0.21721 3.2838 -0.064245 0.087545 0.059236 0.18729 -0.7151 -0.45676 0.42607 -0.075389 -0.21992 -0.12417 0.12843 0.33174 0.089882 -0.15063 -0.08294 -0.066774 -0.19275 0.24453 -0.28937
laugh -0.085817 -0.26125 -0.35273 -0.74924 0.46585 0.2084 0.32603 0.58399 -0.78627 1.0538 -0.5991 0.059641 0.13344 -0.025789 0.62646 0.068815 0.21004 0.701 -0.44686 -0.90238 -0.056928 1.0542 0.60989 0.5168 1.4082 -1.2791 -0.84353 0.75034 0.66674 -1.1668 1.5159 1.0597 0.32797 0.39634 -0.68364 -0.19935 0.13201 -0.33964 0.13717 -0.35495 0.49512 0.77104 -1.0709 0.37107 0.82578 -0.037187 0.3984 -0.18542 -0.61574 0.95639
cry -0.30965 -0.12453 -0.10142 -1.0104 0.29919 -0.1378 0.32024 0.34953 -0.61244 0.85305 -0.46844 -0.053471 0.21428 -0.20927 0.62731 -0.10897 -0.23418 -0.088621 -0.27745 -0.36897 -0.55208 0.72794 0.47567 0.11938 1.0247 -1.1143 -1.1598 0.20509 0.67555 -0.79363 1.6671 0.83967 -0.3561 0.3548 -0.79879 -0.53653 0.21128 -1.3857 0.29541 -0.62393 -0.47184 -0.06137 -0.70933 0.0010667 0.58408 0.18134 0.097253 -1.0431 -0.20177 0.14329
smile -0.078409 0.69917 -0.25106 -0.39339 0.95959 -0.14998 0.22645 0.39141 -0.33114 0.98398 -0.212 0.35793 0.211 0.1782 -0.065093 0.40597 -0.54485 0.25806 -0.046838 -0.56607 -0.79371 1.461 0.31644 -0.49517 1.0434 -1.3671 -0.26372 1.7112 0.64676 -0.87174 1.6197 0.69853 0.34052 0.25404 -0.65208 -0.048741 -0.047842 -0.11243 -0.18974 -1.6706 0.63767 0.47774 -1.0653 0.1806 0.43181 -0.70546 0.61853 -0.6347 -0.18732 0.19669
frown 0.30156 -0.057926 -0.84827 -0.96637 -0.2456 0.15983 0.55768 0.64384 -0.58525 0.29111 0.33221 0.38078 0.85319 0.20086 -0.71207 1.0576 -0.53447 -0.32732 0.4088 -0.74987 -0.46964 0.26041 -0.18579 0.12097 0.29969 -0.68623 -0.52223 1.016 0.28295 -0.70709 -0.21713 1.2086 0.29478 -0.12698 -0.76144 -0.58915 -0.451 -0.81281 -0.23269 -0.13148 -0.06526 0.092593 -0.28505 1.4941 0.13694 -0.68345 0.5946 0.19252 -0.65068 -0.45379
hope 0.3336 0.74512 0.083166 -0.22648 0.52874 -0.33704 -0.54175 0.81136 0.024572 0.37463 -0.057001 0.21685 -0.3829 -0.21458 0.33302 0.64719 0.76588 -0.48044 0.33993 -0.41397 -0.05071 0.50477 -0.11382 -0.48148 0.97721 -1.5711 -0.40916 -0.31893 0.34678 -0.42318 2.8829 1.1383 -0.86361 -0.57353 -0.26611 -0.5939 -0.25876 -0.081662 0.093148 -0.95213 -0.52034 -0.49373 -0.12275 -0.39961 0.40267 0.56377 -0.17417 0.066513 -0.2793 -0.06462
dream -0.04425 0.99856 -0.20423 -0.048967 0.39981 0.035118 -0.86745 0.1959 -0.36649 0.78803 0.00041858 0.30541 -0.73399 0.43037 0.93299 0.20663 0.52427 0.71785 -0.30939 0.079031 -0.2426 0.79301 -0.59451 0.24972 1.0406 -1.0524 -1.3649 -0.38529 0.97883 -0.34811 2.0077 0.45486 -0.85641 0.029487 -0.14606 0.1694 -0.099531 0.049733 -0.17635 -0.9044 -0.41801 -0.77153 -0.25648 -0.30939 -0.19887 0.33251 0.081406 -0.82559 -0.2111 -0.0001517
wish 0.38873 0.68049 -0.11749 -0.45191 0.99853 -0.34435 -0.26952 0.8861 -0.20737 0.18808 0.1496 0.99848 0.09442 -0.29505 0.70482 0.67314 0.21501 -0.23487 0.94706 -0.40527 -0.17464 0.55164 0.2412 0.15992 1.1426 -1.3272 -0.80885 -0.5366 0.62452 -0.84949 2.2279 1.2528 -0.96584 -0.17265 -0.17644 -0.42595 0.31559 -0.24597 -0.46896 -0.45215 -0.075895 -0.67195 -0.15794 -0.057187 0.080128 0.24004 -0.58598 0.19299 -0.21329 0.33807
need 0.41495 0.11293 0.45591 -0.51796 0.3896 -0.21307 -0.10788 -0.11875 0.15723 -0.015614 0.010519 0.62965 -0.02517 -0.059925 0.28582 0.70567 0.62114 -0.16097 0.88253 -1.2017 -0.34935 0.20968 0.17506 -0.20855 0.49624 -1.411 -0.24267 -0.41445 0.74857 -0.38625 3.9179 1.412 -0.8121 -0.59706 -0.060011 0.35452 0.16539 0.25601 0.24476 -0.38762 -0.17842 -0.20283 0.34743 0.52291 0.29194 0.47418 -0.04308 0.77093 -0.27575 0.57742
want 0.13627 -0.054478 0.3703 -0.41574 0.60568 -0.42729 -0.50151 0.35923 -0.49154 0.21827 -0.15193 0.52536 -0.24206 0.023875 0.8225 1.089 0.98825 -0.17803 0.77806 -1.0647 -0.28742 0.50458 0.21612 0.65681 0.34295 -2.1084 -0.82557 -0.31966 0.87567 -1.0679 3.3802 1.2084 -1.272 -0.15921 -0.25237 -0.2696 -0.18756 -0.35523 0.084172 -0.56539 -0.24081 0.15926 0.3287 0.54591 0.29897 0.18948 -0.57113 0.17399 -0.19338 0.51921
have 0.94911 -0.34968 0.48125 -0.19306 -0.0088384 0.28182 -0.9613 -0.13581 -0.43083 -0.092933 0.15689 0.059585 -0.49635 -0.17414 0.75661 0.4921 0.21773 -0.22778 -0.13686 -0.90589 -0.48781 0.19919 0.91447 -0.16203 -0.20645 -1.7312 -0.47622 -0.04854 -0.14027 -0.45828 4.0326 0.6052 0.10448 -0.7361 0.2485 -0.033461 -0.13395 0.052782 -0.27268 0.079825 -0.80127 0.30831 0.43567 0.88747 0.29816 -0.02465 -0.95075 0.36233 -0.72512 -0.6089
do 0.29605 -0.13841 0.043774 -0.38744 0.12262 -0.6518 -0.2824 0.090312 -0.55186 0.3206 0.0037422 0.93229 -0.22034 -0.21922 0.9217 0.75724 0.84892 -0.0042197 0.53626 -1.2667 -0.61028 0.167 0.82753 0.65765 0.48959 -1.9744 -1.149 -0.21461 0.80539 -1.4745 3.749 1.0141 -1.1293 -0.52661 -0.12029 -0.27931 0.065092 -0.043639 0.60426 -0.20892 -0.45739 0.010441 0.41458 0.689 0.14468 -0.031973 -0.048073 -0.00011279 0.13854 0.96954
say 0.538 -0.32312 0.68037 -0.45188 0.17821 -0.22154 -0.6907 0.0012973 -0.17651 0.37021 -0.30653 -0.010422 -0.22567 -0.14526 0.91416 0.62186 0.5173 -0.1694 0.47089 -0.69872 -0.46922 0.51316 0.33302 0.14935 0.20493 -2.5976 -1.1134 -0.047981 0.21307 -0.52961 3.0675 0.40748 -0.59142 -0.41317 -0.01431 -0.74191 -0.26384 -0.38352 0.25446 0.021919 -0.80087 0.47714 0.58133 0.73646 0.65852 -0.11711 -0.77649 0.70693 -0.17722 0.2904
get 0.1591 -0.21428 0.63099 -0.5995 0.31248 -0.16615 -0.90548 0.45115 0.051568 0.2591 -0.32882 0.48155 -0.34982 0.12905 1.0758 0.4869 0.5342 0.059762 0.2166 -1.1059 -0.25591 0.57462 0.54562 0.31043 0.37765 -2.0337 -0.22496 0.18447 0.82587 -1.1991 3.6042 1.1605 -0.59787 0.13 0.15678 0.13166 0.1851 0.36308 0.57538 -0.89593 -0.36366 0.28397 0.048614 0.7878 -0.087311 -0.23394 -0.14237 0.021215 -0.14219 0.66955
put 0.076143 -0.24717 0.40116 -0.44052 0.47109 -0.1377 -0.71907 0.13098 -0.17572 -0.03577 -0.25182 0.22588 -0.76386 0.24249 0.46617 0.10661 0.42314 -0.54628 -0.23715 -0.65187 -0.077369 0.28766 0.10809 -0.45786 0.067866 -1.8636 0.1389 0.17133 0.24996 -0.6366 3.2279 0.56937 -0.653 0.055097 -0.28294 0.17188 0.17931 0.49549 0.33623 -0.49653 0.10105 0.1834 0.095534 0.049611 -0.028313 0.27312 -0.24849 0.14717 0.11502 -0.25162
let 0.067025 -0.010427 0.61778 -0.29952 0.68244 -0.53138 -0.0049878 0.67877 -0.3801 0.1606 -0.054663 0.85439 -0.48949 0.091105 0.79834 0.83093 0.79013 -0.31992 0.27924 -1.1659 -0.0048596 0.20945 0.5982 0.59395 0.50349 -1.8205 -0.31137 -0.073957 1.0215 -1.0536 2.9803 0.83399 -1.1412 0.15333 -0.49095 -0.28432 0.21243 -0.37621 0.46302 -0.32079 0.18216 0.20559 -0.051854 0.38381 0.062563 0.20926 0.21338 -0.42741 -0.19243 0.42443
buy 0.76552 -0.12379 1.144 0.071116 0.69537 -0.25318 -1.4303 -0.64846 -0.17595 0.60268 0.10464 0.96283 0.35706 -0.45109 0.55292 1.1588 -0.13179 0.34544 0.018801 -1.1188 1.358 -0.11799 -0.39478 -0.11678 -0.92234 -1.4277 -0.38724 -0.15941 0.78802 -0.90019 2.5643 0.70629 -0.13151 1.1043 0.51428 -0.60614 -0.5123 -0.034909 0.45906 -0.97082 0.76554 0.0052619 1.0155 0.27476 0.28309 0.23979 -0.85404 0.36266 -0.17013 0.64426
sell 0.75991 -0.48837 0.96112 -0.011633 0.41592 -0.085814 -1.4238 -0.50631 -0.10053 1.0266 0.16282 0.69512 0.17121 -0.57211 0.87349 1.0527 -0.016376 0.22737 0.0077273 -1.1246 1.4857 -0.5348 -0.22741 -0.046627 -1.0557 -1.3702 -0.37656 -0.21865 0.78149 -0.82767 2.7051 0.53262 -0.068492 0.82364 0.30472 -0.51599 -0.60249 0.13721 -0.013094 -0.93079 0.56198 -0.092976 0.69648 0.30449 0.22782 0.17205 -0.86719 0.2829 -0.4027 -0.034107
send 0.6427 0.033631 1.0427 -0.38891 0.56415 -0.9973 -0.47257 0.70355 0.47329 -0.43291 -0.27203 0.41499 0.92477 0.31117 0.3659 -0.11376 -0.30319 -0.59831 0.083775 -0.76383 0.32377 0.05477 0.3254 -0.13707 0.41886 -1.7719 0.38543 -0.50963 -0.065538 -0.93605 2.6708 0.82708 -1.1008 -0.095587 -0.15009 0.27971 0.092238 -0.45494 -0.23157 -0.46384 0.7537 0.47881 0.69691 -0.36682 0.42108 0.51631 0.27538 0.83256 -0.75595 0.044379
receive 0.38564 0.89574 0.57274 -0.37227 0.4299 0.052068 -0.26815 0.61382 0.68229 0.41756 0.30755 0.18049 1.556 -0.58097 0.74192 -0.10099 -0.5224 -0.061529 0.12406 -0.60208 0.56399 -0.058985 0.25173 -0.35227 -0.41578 -1.1779 0.048267 -0.92063 -0.50183 -0.39194 3.1039 1.1564 -0.56425 -0.2345 0.52053 0.095412 0.7566 0.051648 0.014377 -0.8451 0.52162 0.17071 0.34844 0.54354 -0.63099 -0.65424 -0.48459 1.0387 -0.4691 0.37766
wait 0.42237 -0.15824 0.32442 -0.87483 0.43257 -0.91895 -0.6792 1.1121 -0.09794 -0.23305 -0.28874 0.15379 -0.10902 0.37869 1.4087 0.84035 -0.14228 -0.54036 0.065478 -0.85974 0.2243 0.29426 0.35782 0.57761 0.67767 -1.3517 0.013808 0.15085 0.67284 -0.24376 2.4976 0.76786 -0.95764 0.20433 0.35603 -0.40218 0.64647 0.031975 0.23342 -0.74051 -0.62553 -0.209 -0.0046038 0.54783 -0.035645 -0.031944 0.50267 -0.013276 -0.036279 0.57063
listen -0.22879 0.053083 0.44414 -0.4895 0.32961 -1.0318 -0.27596 0.69801 -0.65196 0.73883 -0.33845 0.60481 0.2534 0.44587 0.44358 0.63509 -0.048101 -0.029044 1.034 -1.1491 0.205 1.2271 0.85827 0.99989 1.3794 -1.1111 -0.63182 -0.10912 0.053954 -1.3446 2.2242 0.50349 -0.60923 -0.45634 -0.19017 -0.42367 0.47548 -0.63781 -0.20979 -0.19121 0.40421 0.22367 -0.48287 0.54567 0.40121 0.40563 0.068933 0.12087 -0.87932 0.71935
answer 0.26094 0.042302 0.22624 -0.017478 0.80219 -0.049743 0.015314 0.50027 -0.4339 0.037553 -0.76848 0.29197 -0.23692 -0.10067 0.93067 0.12202 -0.19004 -0.38296 0.4168 -0.70212 -0.01708 0.4918 0.50956 0.323 0.97358 -1.8345 -0.53319 0.028191 0.32527 -0.62048 2.3189 -0.024836 -0.71911 -0.73944 -0.020636 -0.5763 0.26205 0.033096 -0.052199 -0.47669 0.32949 -0.021332 -0.16153 0.83837 0.052265 0.35468 0.29417 1.1374 0.1407 0.68197
move 0.4998 -0.33632 0.3645 -0.14343 0.038056 -0.50057 -0.49599 0.41304 -0.47859 -0.041149 -0.14854 0.056416 -0.6039 0.050023 0.12079 0.74701 0.52859 -0.7595 -0.2347 -0.63323 0.24317 -0.38396 -0.38743 0.011426 0.086758 -1.7793 0.52389 0.20522 0.48076 -0.28723 3.3883 0.57645 -0.57002 -0.38274 -0.39094 -0.48831 -0.082406 -0.13689 -0.38417 -0.5988 -0.22443 -0.0069302 -0.032434 -0.15128 0.029392 0.23027 0.081415 0.24245 -0.097633 0.18361
turn 0.45343 -0.22031 0.53704 -0.48735 0.34246 0.046052 -0.23291 0.25968 -0.1569 0.19915 -0.25845 0.1669 -0.40184 0.2655 0.098261 0.37715 0.38031 -0.18185 -0.18964 -0.89434 0.14745 -0.074522 0.39154 0.2833 0.41066 -1.7343 -0.25598 0.17865 0.7382 -0.25739 3.1924 0.45517 -0.42569 -0.20284 0.0046717 -0.15003 -0.44053 0.17373 0.042864 -0.51609 -0.24876 0.18265 -0.1904 0.13985 -0.10454 0.16818 0.16748 -0.51592 0.034724 -0.089377
look 0.30563 0.17204 -0.21555 -0.3951 0.67612 -0.36456 -0.73101 -0.5046 -0.42605 0.059996 -0.47502 0.34054 -0.42368 0.59173 0.53529 0.65185 0.30654 -0.10973 0.19828 -1.1948 -0.51688 0.58365 0.13365 0.13984 0.25233 -1.4953 -1.2784 0.96403 0.69722 -0.86861 3.0337 0.53583 -0.021989 -0.59342 0.095647 0.18606 -0.29222 0.41214 -0.28242 -1.1504 -0.33283 0.1475 0.33251 0.36922 0.37794 0.17568 0.3005 -0.056685 0.097726 0.45878
face -0.051524 0.25137 -0.14722 -0.061506 0.32593 0.38156 0.55556 0.62217 -0.16847 -0.21296 -0.28909 -0.15927 -0.65887 0.083074 0.58494 0.0089347 0.11029 -0.81686 -0.15163 -0.78485 -0.78144 0.21021 -0.034455 -0.2988 -0.46719 -2.1546 0.15288 0.50366 0.3593 -0.12171 2.9504 0.76009 0.025124 -0.36938 -0.40831 0.40751 -0.16736 -0.15224 -0.09004 -1.3537 -0.24557 0.53153 0.56965 0.18923 0.61818 0.066045 -0.029378 -0.40707 0.0065966 -0.61169
follow 0.4412 0.084212 -0.28257 -0.54239 0.072307 -0.14657 -0.28934 -0.025851 -0.073964 -0.0042801 -0.19026 0.46602 -0.43998 0.070678 0.25648 0.43272 -0.010311 -0.86307 0.33371 -0.59628 0.12275 -0.039799 0.21902 0.43961 0.50104 -1.368 -0.48659 -0.38877 -0.031598 -0.3554 2.8328 0.33097 -0.72745 -0.44201 0.23695 -0.61198 0.26042 -0.25904 -0.64843 0.17589 -0.45912 -0.32599 0.14 0.42292 0.18135 0.14431 0.41263 0.36685 0.049889 0.16649
lead -0.28082 0.090083 0.37508 0.69311 0.14068 0.84946 -0.50829 0.89664 -0.10727 0.50618 -0.225 -0.61099 -1.0605 0.51236 -0.31787 -0.35918 0.82664 -1.4604 -0.92953 -0.51018 -0.62897 -0.10766 -0.16471 -0.6271 0.074354 -1.1028 0.22004 -0.61865 -0.0089281 -0.076962 3.1473 0.55912 -0.16795 -0.20584 0.2583 -0.15469 0.18157 0.52757 0.65605 -0.70857 -0.31964 -0.13145 -0.40443 -0.36479 0.42362 0.75078 0.24491 0.14162 0.23444 -0.086934
offer 1.0685 0.67702 0.12728 0.26755 0.14107 -0.10997 -0.99775 -0.16944 -0.097028 0.77214 -0.23949 0.27231 0.41634 -0.41062 0.18607 0.72353 -0.046087 -0.21078 0.29083 -0.88879 0.89093 0.59966 -0.39714 -0.093733 -0.41351 -1.0497 0.094512 -0.3727 -0.20549 -0.40903 3.3661 0.93074 -0.5522 0.32474 0.73872 -0.6526 -0.12432 0.078921 -0.40239 -0.80085 0.62803 -0.06116 0.28775 0.68145 -0.13833 0.037856 -0.40941 1.5338 -0.33182 0.40558
accept 0.29195 -0.037498 0.045397 -0.66756 0.35572 0.15904 0.18876 0.71428 -0.5487 0.25693 0.10569 0.467 0.25039 -0.463 0.69438 0.90452 0.47987 -0.41964 1.0162 -0.65189 0.24648 0.063517 0.052375 -0.047685 -0.040445 -1.8273 -0.055723 -0.36278 -0.062241 -0.19246 2.5408 0.3953 -1.4979 -0.062233 0.11833 -0.77626 0.43641 -0.30727 -0.60661 -0.50355 0.022186 -0.19496 0.18691 0.42663 -0.56225 -0.24549 -0.68124 1.1784 -0.4677 -0.023024
refuse 0.34018 -0.33357 0.081941 -0.80225 0.0094687 -0.14621 -0.12652 1.2264 -0.041573 -0.1298 0.23451 0.40917 0.50467 -0.30914 0.7462 0.95222 0.58645 -0.48326 1.301 -1.017 0.42353 0.075292 0.16087 0.62768 -0.37098 -1.4104 -0.070725 -0.47404 0.40559 -0.65841 1.6619 0.77579 -1.427 -0.37635 -0.12615 0.0090294 0.66936 -0.56358 -0.17491 -0.049731 0.24622 -0.49833 0.68905 0.82046 0.44263 -0.073538 -1.0065 0.69101 -0.13921 -0.3885
agree 0.62574 -0.14607 0.293 -0.42229 0.12178 0.040521 -0.25521 0.50799 -0.78226 -0.09054 0.065429 0.26724 -0.081089 0.22758 0.62548 1.2289 0.99467 -0.83518 1.0491 -0.90803 0.074295 -0.024153 0.27543 0.28337 0.083929 -1.4654 -0.014836 -0.58643 -0.19406 -0.24781 2.6237 0.32282 -1.4216 -0.33012 0.075938 -1.117 -0.13124 -0.31802 -0.35765 -0.42944 -0.60632 -0.4374 0.66884 0.31179 0.088399 0.36691 -0.26816 1.4279 -0.7118 0.22627
disagree 0.12705 -0.698 0.062803 -0.83354 0.33516 0.16598 0.037272 0.25614 -1.1827 0.070919 -0.26883 0.046237 0.09715 -0.38071 0.26113 0.84148 0.71685 -0.65253 1.1285 -1.0682 -0.62952 0.39613 0.6595 0.35679 1.029 -1.1692 -0.6141 -0.19393 -0.44392 -0.60367 1.0655 -0.014975 -0.49422 -0.8657 -0.54899 -1.7891 -0.1982 -0.0742 -0.37965 0.3063 -0.22491 -0.36939 0.84551 1.2301 0.35539 0.19538 -0.50488 1.4351 -0.61946 0.45531
argue 0.022012 -0.65361 0.20819 -0.63216 -0.15763 0.37835 -0.12251 0.016901 -0.28878 0.50795 -0.15917 0.18241 0.073963 -0.33631 0.23052 0.6798 1.0917 -0.71485 0.55701 -0.95381 -0.19777 -0.15487 -0.25575 -0.0087491 0.28121 -1.8685 -0.38964 -0.57373 -0.13941 -0.10936 1.7904 -0.12006 -0.51718 -1.1084 -0.39987 -1.0406 -0.27047 0.063927 -0.20357 -0.047521 -0.40913 0.073196 0.65796 1.1937 0.21236 0.044392 -0.49064 0.70134 -0.33479 0.1834
fight 0.18081 -0.88943 -0.056444 0.27761 -0.034368 0.021453 0.65907 0.46379 0.39876 -0.068031 -0.34704 -0.15171 -1.0866 -0.20378 0.52666 -0.26863 0.65746 -0.14551 -0.52916 -0.15447 -0.58662 -0.013325 0.27604 -0.19283 -0.35384 -2.1461 0.18328 -0.90695 0.72437 0.23069 2.7465 0.86624 -1.2765 -0.38499 -0.9856 0.13895 -0.49444 -0.29634 -0.47713 -0.91626 -0.64034 0.1089 -0.23269 0.036234 0.73764 0.12653 -0.18742 -0.92146 -0.54002 0.38856
win -0.9956 0.60838 0.22002 1.0908 0.13992 -0.057694 -0.44944 1.5642 -0.75155 0.41191 -0.48982 -0.7508 -1.1309 -0.35802 0.39123 -0.43922 1.2247 -0.79044 -1.4669 -0.31246 -1.0426 -0.19364 0.041547 -0.27342 0.22483 -1.8467 -0.0056521 -0.7655 -0.20018 -0.5912 2.7889 1.893 -0.86044 0.35559 0.17381 -0.52937 0.33235 1.2614 -0.18429 -1.9211 0.060399 -0.64797 -0.30321 -0.064208 -0.14185 0.92758 -0.50336 0.0054718 0.4849 -0.28161
lose -0.32794 -0.22245 0.87513 -0.031611 0.53012 0.17233 -0.12229 0.95027 -0.3242 0.18498 0.20931 0.044162 -0.22647 -0.48118 0.55321 0.57403 0.46161 -0.1944 -0.25416 -0.74225 -0.73344 -0.2205 0.27493 -0.027169 0.13238 -1.5013 -0.32814 -0.47828 0.81685 -0.21857 2.7283 1.6141 -0.1168 0.036641 -0.18911 -0.35183 -0.10644 0.29486 0.60173 -1.2284 -0.25335 -0.30264 0.078422 0.77577 -0.48185 0.36324 -0.43876 -0.021423 0.034357 0.29522
support 0.36274 -0.033799 0.73714 -0.41275 0.17885 0.28384 -0.24078 -0.26094 -0.059845 -0.04074 0.076052 -0.10649 0.2413 -0.27102 -1.0219 -0.14183 0.15021 -0.31005 0.7186 -0.42428 -0.049672 0.1063 -0.25183 -0.61771 -0.10167 -1.73 0.38166 -0.72861 -0.46378 0.56633 3.7755 0.7574 -0.99729 -0.73075 -0.32682 -0.23346 -0.12167 -0.1636 -0.7929 -0.63738 0.20036 -0.033997 -0.3645 -0.38151 -0.12014 0.019369 -0.89391 0.51591 -0.2976 0.067125
oppose 0.083459 -0.79613 0.28817 -0.80377 -0.3163 0.96835 0.0043804 -0.048926 -0.62437 0.36762 -0.24957 -0.61071 0.49532 -0.079878 -0.4287 0.46909 0.98435 -0.93065 0.59272 -0.35541 -0.056142 -0.3006 -0.42605 -0.27498 -0.14673 -1.8379 0.46705 -0.61459 -0.00056797 -0.19377 1.7719 0.37154 -1.6354 -0.43552 -0.8288 -1.5233 0.0061682 -0.45396 -1.2384 0.13898 -0.46584 -0.14345 0.56462 0.55207 0.10563 -0.18923 -1.2577 0.67844 -0.53501 0.1631
share 0.39412 0.23183 0.68751 0.60652 1.3761 0.27754 -0.32208 -0.62187 -0.36348 0.67472 -0.040729 -0.20789 -0.16353 -0.65121 0.16243 0.38098 -0.43867 -0.6112 -0.61015 -0.70224 1.0659 0.42596 0.041147 -0.42776 -0.2011 -0.73324 -0.32669 -0.68379 0.16033 0.19827 3.448 1.1533 0.61444 0.90163 0.28738 -1.5299 -0.95981 -0.074803 0.047515 -0.75995 0.14074 -0.39512 0.65483 0.67043 -0.41361 0.034972 -0.30459 0.57809 0.25825 -0.1166
care 0.68353 0.22095 -0.056607 -0.97564 0.021986 0.83748 -0.68084 -0.32343 1.2331 -0.2715 -0.27033 0.10855 0.391 -0.33831 0.078469 0.078807 -0.34752 0.16324 1.281 -0.18929 -0.10121 0.813 -0.567 -0.091478 -0.068022 -1.4918 -0.34183 -0.74081 0.30182 0.151 3.3446 1.2234 -0.17981 -0.52359 -0.17783 0.26673 0.21092 0.37758 1.4058 -0.67737 -0.49647 -0.2898 0.42994 0.97378 0.27325 0.30263 -0.62122 0.17708 0.10696 1.4949
ignore -0.11956 -0.44073 -0.0042586 -0.48786 -0.25074 -0.22793 0.47464 0.5003 -0.17573 0.16806 -0.23077 0.56124 0.079438 -0.15577 0.39112 0.79951 0.32329 -0.66992 1.0073 -1.0821 -0.15797 0.044401 0.12674 0.53984 0.73068 -1.5376 -0.7159 -0.12978 0.64493 -0.33354 1.5052 0.46268 -0.61189 -0.92807 -0.32704 -0.38095 -0.040077 -0.74275 -0.58788 -0.15358 -0.20012 0.15749 0.55702 0.80185 0.22945 0.54617 -0.14244 0.80394 0.23834 0.13918
forget -0.15997 0.37923 -0.036834 -0.33062 0.27603 -0.44138 0.053979 0.52108 -0.56835 0.18293 -0.53779 0.49202 -0.47863 -0.066248 1.2327 0.37466 0.30358 -0.32167 0.31367 -0.48385 -0.48741 0.33397 0.26128 0.4135 0.87746 -1.317 -1.2374 -0.23003 1.395 -0.7548 1.6282 1.3277 -0.62492 0.098367 -0.60372 0.1863 -0.090389 0.10395 0.24619 -0.47582 -0.016839 0.019605 0.41396 0.25497 0.4275 0.82291 0.038668 -0.29663 -0.1377 0.36812
remember -0.11722 0.55144 0.10913 -0.73236 0.70768 -0.34881 -0.65423 0.28317 -0.93947 0.040508 -0.64891 0.21934 -0.318 -0.22777 1.4683 0.19116 -0.20114 0.16371 -0.070128 -0.52566 -0.42527 0.61272 0.42093 0.10032 1.1749 -1.4888 -1.3832 -0.020163 1.2494 -0.90783 1.8669 0.81414 -0.44588 -0.35989 -0.10227 0.047344 0.10692 -0.15646 0.15487 -0.13466 -0.58914 -0.049141 -0.30893 0.21003 0.44295 0.49062 -0.049601 -0.45035 -0.49683 0.42331
imagine 0.27302 0.10954 0.12692 -0.30777 0.58869 -0.14672 -0.24459 0.17729 -0.51043 0.47237 -0.49396 0.34306 -0.41998 0.26016 1.0827 0.37357 0.64435 0.43155 -0.039068 -0.71301 -0.042818 0.68967 0.09243 0.38176 1.1273 -1.1954 -0.945 0.19887 1.1322 -0.62715 1.7329 0.64462 -0.17765 -0.46742 -0.56199 -0.049607 -0.066996 0.052976 0.08582 -0.42219 -0.34128 -0.018513 -0.0061786 0.4987 -0.014007 0.35859 0.086429 -0.27476 -0.26256 0.58763
create 0.88381 0.068062 0.17686 0.27957 0.023762 0.37138 -0.022752 -0.77311 0.14423 0.56969 -0.05956 0.074802 0.076397 0.36677 -0.15239 0.41937 0.97947 0.11217 0.50954 -1.0333 0.54731 -0.23514 -0.55706 -0.13631 -0.06666 -0.73676 -0.65353 -0.39306 0.63081 -0.23663 3.5432 0.33846 -0.66564 -0.96229 -0.69324 0.41779 -0.64705 -0.061591 -0.19988 -0.55846 0.027048 -0.22621 0.067821 0.029326 -0.098893 0.45022 0.11204 0.073438 -0.40008 0.0019421
destroy 1.2015 -0.67631 1.2147 -0.088623 0.63182 -0.01658 0.11503 0.045902 0.4393 0.26897 0.17652 0.41155 -0.095757 -0.083645 -0.32609 0.76902 1.0917 0.067364 -0.018894 0.37448 -0.044607 -0.32831 0.10735 -0.66499 0.0039524 -1.3753 -0.55 -0.73607 1.652 -0.79903 1.8354 -0.27842 -1.3061 -0.74848 -0.63139 0.84415 -0.15245 -0.53687 -0.41033 -0.042751 0.080201 -0.90645 0.58086 -0.34477 0.87305 0.49884 -0.58716 -0.3485 -0.23148 -0.63395
build 1.2426 0.56913 1.0025 0.13351 0.01247 -0.26163 -0.64717 -0.36756 -0.015053 0.28383 -0.202 -0.11345 -0.070683 -0.054243 -0.70275 0.77443 0.96237 1.1434 0.25683 -0.44676 0.5363 -0.28462 -1.2776 -0.66336 0.026814 -1.164 0.21594 -0.36506 0.64263 -0.43925 3.3075 0.3918 -0.64493 -0.24103 0.038335 0.33088 -0.050704 0.52266 -0.28492 -0.2076 -0.20324 -0.9633 0.39105 -0.028234 0.17357 0.5589 -0.57812 -0.15275 -0.617 -0.19918
break -0.28705 -0.30243 -0.1783 -0.10987 -0.050859 0.12751 -0.17744 1.0594 -0.23847 0.42171 -0.2365 -0.42389 -0.9417 0.68459 0.52028 -0.041713 0.3572 -1.029 -0.52059 -0.48544 0.17025 0.030926 -0.14727 0.03914 0.11438 -1.5402 0.64653 -0.32198 0.88346 -0.28024 3.2456 0.50162 -0.52768 0.51411 -0.20428 0.19845 0.12255 0.33672 0.16214 -0.45786 -0.21468 0.070855 -0.15447 0.30589 0.24846 0.13941 0.62953 -0.48261 -0.5468 -0.36781
fix 0.25794 -0.080829 1.2428 0.21179 -0.80252 0.37306 0.26307 0.14003 -0.20333 -0.36922 -0.51223 0.60502 -0.60113 0.56818 0.97074 0.82834 -0.17541 -0.056945 1.1026 -0.8421 0.19053 -0.553 -0.47206 0.19753 0.65228 -1.1911 -0.86333 -0.22841 1.0307 -0.25241 2.0276 0.36084 -0.87268 0.15841 0.35035 0.96793 0.49106 -0.21946 0.96576 -0.60375 -0.11899 -0.061461 0.61912 0.32318 0.17263 0.77286 0.91768 0.99789 1.0579 -0.024976
clean -0.2388 -0.25032 0.047532 -0.30455 -0.46657 -0.075432 0.052256 -0.38614 0.92713 0.51022 -0.41598 0.13172 -0.044987 0.59698 -0.11278 0.012702 0.83813 0.66622 0.52714 -1.1816 0.11522 0.57263 0.4178 -0.83165 0.031019 -1.1038 0.10626 0.77289 0.80683 -0.35523 2.8775 0.444 -0.88926 -0.099022 -0.19078 0.82663 0.36064 1.0253 0.52781 -0.72886 -0.28905 -0.35858 0.63454 0.075873 0.11478 0.45858 -0.65593 -0.42957 0.9178 0.0042006
cook -0.13943 0.017151 -0.93222 -0.27535 0.64995 0.30881 -0.79803 0.59895 -0.065135 -0.86294 -0.54042 0.85057 0.74355 0.32445 0.29037 0.31137 0.68033 -0.085033 -0.59788 -0.50544 0.8221 0.65098 1.4318 0.52939 0.40459 -0.68731 0.72354 0.12207 0.41192 0.049776 2.0408 -0.27222 -0.347 0.40657 0.28294 0.18117 -0.3758 0.81424 1.1397 -0.467 0.67849 0.77155 0.089114 -0.2941 0.18816 1.186 -0.063463 -0.45469 -0.010657 1.074
bake -0.095363 0.14147 0.56635 -1.2354 0.84962 0.25108 0.025371 0.3549 -0.037432 -0.34542 -1.0328 -0.97513 1.3088 1.2028 0.0054406 0.77615 0.69019 -0.36424 -0.2782 -0.53014 1.9652 0.28613 2.0938 0.27376 -0.29897 0.80425 -0.64963 0.36951 1.225 -0.83464 0.943 0.33416 -1.4467 1.5213 -0.30848 -0.0017929 -0.27642 1.7968 1.8708 -0.36312 1.131 0.042396 0.38514 0.027652 -0.30693 0.73152 1.0073 -0.084813 -0.57248 0.15339
fry -0.43792 -0.29218 -0.41514 -0.19744 0.67972 0.60736 -0.023345 0.38207 -0.09944 -0.48987 0.052768 0.74043 0.7094 0.36692 0.21736 0.42185 0.79907 0.12879 -0.57919 -0.28042 0.87893 -0.089991 1.4221 0.42826 0.17388 -0.43101 0.14415 -0.098081 0.43187 -0.15376 0.61404 -0.30734 -0.16936 0.45945 -0.21195 0.18854 -0.54004 0.76602 0.90594 -0.33645 0.91108 0.9168 -0.091113 -0.83251 0.68557 1.0176 0.18714 -0.48254 -0.94684 0.79427
boil -0.11109 -0.51646 -0.49152 -1.116 -0.42171 0.18049 1.1878 1.0141 -0.24277 0.14935 -0.80768 0.57693 1.2656 0.089062 0.19943 0.56246 0.40861 -0.37001 -0.31003 -0.91079 1.2654 -0.22569 2.3862 0.17728 0.34961 -0.13115 1.273 0.69297 1.6392 0.91256 1.6909 0.6494 -0.92253 0.76255 -0.63721 0.55696 -1.2767 0.18844 1.7991 -0.536 0.35463 0.54023 -0.29438 0.14138 0.31773 1.2803 1.0561 -0.23416 0.0714 -0.45184
wash 0.21473 -0.12386 -0.060734 -0.48248 -0.81974 -0.01071 -0.1787 0.22899 0.46298 -0.47632 -0.71289 0.40994 0.83801 -0.19857 -0.3936 0.46907 -0.018075 0.25584 0.24752 -1.1802 0.17802 0.1188 0.99759 -0.052702 0.082076 -0.70217 -0.28571 1.1461 1.2257 -1.1676 1.2518 0.30352 -0.6073 0.11593 0.03638 0.67858 -0.13848 0.12003 1.7829 0.082811 0.058374 0.22966 0.40507 0.10633 0.27575 0.88687 0.37886 -1.0186 0.2757 0.035919
dry 0.075443 0.12914 -0.79299 -0.38179 -1.2228 -0.27733 -0.69388 0.18074 0.61848 -0.45617 -0.13121 0.14016 1.1167 -0.59254 -0.013206 1.043 0.13883 0.28215 -0.3573 -1.113 -0.50774 0.088101 1.3916 -0.11661 0.061221 -0.27293 0.11197 1.8735 1.7992 0.85896 3.0109 -0.73724 0.02552 0.53006 0.1782 0.6107 -0.75749 0.91398 1.1567 -0.59113 0.29146 0.14274 0.29725 0.34814 0.18114 0.60559 0.37131 -0.7642 -0.053583 -0.2342
fold -0.13905 -0.060479 0.41246 -0.54161 0.59274 0.67492 0.093045 -0.17767 -0.29063 -0.55291 0.11625 -0.40453 0.032625 0.66166 -0.21945 0.62531 -0.092205 -0.44594 0.35464 -0.61028 0.1259 -0.96295 1.0522 0.22777 -0.57009 0.0005861 0.08303 0.54824 0.43835 0.060774 1.977 0.81399 -0.42469 0.94516 -0.63433 -0.12653 -0.82709 0.083357 0.33029 -0.46106 0.12418 -0.30722 -0.47668 -0.013028 -0.29099 0.24933 0.68717 -0.19416 -0.69433 -0.69884
hang -0.86248 -0.51332 0.78609 0.16276 1.5101 -1.3339 0.31129 -1.0625 -1.0563 0.050787 0.17483 -0.012449 -0.33159 0.45915 -0.2133 0.91711 -0.61937 -0.34156 -0.24436 -0.74871 0.9207 0.23229 0.31337 -0.57984 0.21051 -0.53908 -0.30486 0.10211 0.19834 -0.96936 2.254 0.63959 0.40128 0.57252 0.021185 -0.73685 0.24301 -0.1715 0.095436 -0.40774 -1.0528 -0.74058 0.41296 0.62622 0.9655 -0.92399 0.17318 -1.7563 1.25 -0.35634
sweep -0.14031 -0.26023 0.16338 0.75054 -0.53577 -0.257 -0.27542 0.76764 0.37818 -0.058619 -0.98352 -1.0368 -0.84968 1.0331 -0.21574 -0.6457 0.76126 -0.88834 -1.511 -0.33341 -0.40242 -0.27779 0.02168 -0.34547 -0.20954 -0.89399 -0.33202 -0.19035 0.62175 -0.27718 1.6881 0.77157 -0.58739 0.032349 -0.21415 0.34222 -0.25405 0.17888 -0.43116 -0.0054158 -0.86844 0.0083623 0.032916 0.34416 0.37514 0.17067 0.14749 -0.36835 0.15778 -0.90156
mop -0.070418 -0.63465 -0.46316 -0.74279 0.031519 -0.5663 0.98805 0.12511 0.22574 -0.16993 -0.20136 0.29978 0.069061 1.0808 -0.0031216 -0.17138 0.26104 0.78 0.20312 -0.64268 0.12374 -0.13794 0.92829 -0.77671 -1.3755 0.099495 0.11785 1.0804 0.74558 0.43249 0.78004 0.44109 -0.52713 0.98147 -0.19526 1.6738 -0.62877 -0.077578 1.1125 -0.97459 -0.51619 0.054472 -0.11791 0.016484 0.5162 -0.89528 0.82238 -0.3195 0.013617 -0.32131
vacuum 0.44981 -0.35615 1.0121 -0.21801 -0.30566 0.29511 1.0238 -0.21003 0.24644 0.14059 0.40752 0.12153 -0.15063 0.90955 -0.59234 1.4173 0.24388 0.61148 0.13434 -1.1992 0.67038 -0.27174 -0.083502 -0.34535 0.010702 -0.66585 -0.56517 0.37973 1.1644 1.4323 1.5527 -0.37266 -1.0009 -0.18485 -0.39808 0.60558 0.12719 0.27741 0.75348 0.66562 0.49024 0.50766 -0.7485 0.95461 -0.21631 0.58432 0.091116 -0.24806 -0.17448 -0.6689
dust 0.19589 0.36976 0.47645 -0.13328 -0.41362 0.12122 -0.0573 -0.06473 0.76564 0.059267 0.30038 0.13125 0.52792 1.0133 0.63358 0.6281 0.46381 -0.049826 -1.1165 -1.368 0.13338 -0.24891 1.3021 -0.92603 0.13835 -0.60732 -1.0947 1.3377 1.4037 0.081193 1.5488 -0.4311 -0.3876 -0.75857 -0.76784 0.89972 -0.47844 -0.35399 1.4592 0.25395 -0.42557 0.27837 0.38444 0.14 0.46388 0.36766 0.37192 -1.0108 -0.19783 -1.3572
organize 0.48958 -0.43656 -0.25715 -0.055395 -0.18773 -0.66123 -0.42618 0.52736 0.33707 -0.13861 -0.31815 -0.53498 0.20392 0.27105 0.045065 -0.42577 0.5525 -0.10581 0.66835 -0.58469 1.0867 -0.57518 -0.22659 0.71305 -0.25314 -0.46223 -0.16196 -1.5483 -0.011293 -0.37867 2.1016 1.0411 -1.7876 -1.1264 -0.68886 0.44993 -0.15083 0.11493 -0.43301 0.35586 -0.53823 -0.6722 -0.46963 -0.056753 0.58041 -0.14181 -0.14499 -0.053406 -0.20813 0.29976
arrange 1.2665 0.42131 -0.44721 0.08072 0.33404 0.15183 -0.34052 1.2127 0.016058 -0.44392 -0.51302 0.47419 0.69679 0.96327 0.29166 0.10312 0.11413 -0.5955 1.1792 -0.5328 1.6052 -0.073774 0.5911 0.30763 -0.54427 -0.17992 0.86134 -0.36847 0.59048 -0.72092 1.9346 0.5487 -1.4732 0.62919 0.30587 0.73204 -0.28904 0.50721 -0.00082946 -0.27676 0.25561 -0.21782 0.14772 -0.25268 0.52703 -0.51143 0.30039 0.34494 -0.19199 0.13255
plan 1.3774 -0.16215 0.3794 -0.45582 -0.25013 0.37414 -0.79118 -0.69322 -0.1199 -0.15314 -0.81506 0.018521 -0.15236 0.048035 0.19093 0.49682 0.5627 -0.28489 0.56076 -0.12296 0.57008 -0.56692 -0.97711 -0.77112 -0.33156 -1.6091 0.17298 -0.16588 -0.03881 -0.030099 3.4672 0.097408 -1.6051 0.020377 -0.061947 -0.5135 0.16889 -0.20045 -0.064958 -0.53008 -0.81013 -0.46307 0.14152 -0.436 -0.3983 0.18535 -0.18661 1.0669 -0.064781 0.77499
decide 0.41494 -0.41627 -0.0054182 0.15999 0.72787 -0.16011 0.13293 1.1004 -0.23374 -0.44779 -0.044583 0.42461 -0.10467 0.40908 1.1583 1.1844 0.59795 -0.70755 0.39637 -0.93164 0.41339 -0.12126 0.26541 0.60244 -0.21061 -1.7207 0.050287 -0.69214 -0.24751 -0.61852 2.3407 0.68204 -1.8755 -0.56847 0.41923 -0.62896 0.53376 -0.0095455 0.048721 -0.98239 -0.59441 -0.22699 0.41012 0.47395 -0.56344 0.24825 -0.017722 0.43225 0.05739 0.47668
choose 0.274 0.34878 0.37316 -0.26106 0.78886 0.15911 -0.26774 0.10121 -0.51412 -0.06796 -0.04572 0.13768 0.92519 0.40042 0.36501 0.77358 0.27704 -0.17097 0.85891 -1.1504 -0.01281 -0.20455 0.33699 1.0529 -0.063675 -0.99937 -0.33999 -0.92408 -5.0124e-05 -0.37621 2.5117 1.178 -1.6785 -0.49635 0.74312 -0.23415 0.18944 0.39354 -0.46498 -0.55831 -0.17056 0.023052 0.07645 0.70563 -0.28608 0.27137 -0.24242 -0.037662 0.14822 0.49155
invite 0.51031 0.53186 -0.047721 0.059753 0.2695 -0.59401 0.12157 0.94524 -0.75201 0.006216 -0.28167 0.25818 0.55817 0.27662 0.81932 0.67361 0.6594 -0.023904 0.68195 -0.61566 0.61677 0.1195 0.17915 0.48822 0.40435 -1.0357 0.21269 -0.7968 -0.64785 -0.6838 1.2423 1.226 -1.3023 -0.40831 -0.31628 -0.17126 -0.040424 -0.17665 -0.72658 -0.30422 -0.036717 0.016346 -0.013878 0.050811 0.82793 0.050471 -0.40365 0.70094 -0.5316 0.16195
